digraph Tree {
node [shape=box, style="filled", color="black"] ;
0 [label="Внешность_приятная <= 0.5\ngini = 0.4898\nsamples = 7\nvalue = [4, 3]", fillcolor="#e5813940"] ;
1 [label="gini = 0.4444\nsamples = 3\nvalue = [1, 2]", fillcolor="#399de57f"] ;
0 -> 1 [labeldistance=2.5, labelangle=45, headlabel="True"] ;
2 [label="gini = 0.375\nsamples = 4\nvalue = [3, 1]", fillcolor="#e58139aa"] ;
0 -> 2 [labeldistance=2.5, labelangle=-45, headlabel="False"] ;
}